SVM-light Version V6.20
0 # kernel type
3 # kernel parameter -d 
1 # kernel parameter -g 
1 # kernel parameter -s 
1 # kernel parameter -r 
empty# kernel parameter -u 
50 # highest feature index 
66 # number of training documents 
2 # number of support vectors plus 1 
0 # threshold b, each following line is a SV (starting with alpha*y)
1 1:0.26627782 2:1.1697375 3:0.30602384 4:0.021704508 5:-0.75470531 6:-0.7438786 7:-0.96143091 8:0.21586162 9:-0.73150527 10:-0.036086254 11:-0.81346846 12:-1.0100663 13:0.27738303 14:0.0312909 15:1.2589494 16:0.27029121 17:1.2237583 18:0.24720483 19:0.032522272 20:0.27391177 21:0.28038868 22:1.0746624 23:-0.74301571 24:-0.76447713 25:-0.71890336 26:0.23994723 27:-0.7011162 28:-0.74745125 29:0.99938411 30:-0.74353057 31:0.22634129 32:0.2380452 33:-0.0010783236 34:-0.044193979 35:0.27366826 36:0.2823354 37:1.2494434 38:1.2657673 39:2.2711356 40:1.2552562 41:-0.74165887 42:-1.6163039 43:-1.7411104 44:-1.7686609 45:-0.98333609 46:1.2648301 47:0.21822707 48:-0.69542122 49:0.32705 #
